250 15
-0.4030401487487757 -0.4337570749067148 0.21946824788489883 0.32116321031578143 0.11884554979637141 -0.4036915491193478 0.4330743984859168 -0.40127120745795253 0.17128060307175108 -0.16662901506955863 -0.3673187039418919 0.2999239849548584 -0.48434205816465736 -0.1255043447641223 -0.35412298129279995 1
0.04017436913940442 0.025859791722936065 -0.2414035332171276 -0.3558895000674338 0.44795428461805076 0.2760657487828202 -0.46019758230883623 0.34652399605435735 0.290808099737215 -0.08432765873238546 0.42982649168638454 0.4892833409973295 -0.4579907003951841 -0.2321868258330888 0.442482715081273 1
-0.4077320897913813 -0.4945455359047588 0.475993977541048 0.3737819878773436 0.45367971707365473 0.1585510023317791 -0.36420446517732397 -0.4571677553681204 -0.06951208251958307 -0.16633899409733655 -0.24462361478309602 0.4377946693847862 0.21219798900260078 0.33458137096072316 0.45430711251797073 1
-0.2695605455839285 -0.13611690705171176 -0.4828428747822783 -0.33748415666358356 0.13162359545307112 -0.3374198591525487 -0.10517355797819328 -0.026404597340575875 0.0564238651483564 -0.2564433530148459 0.45461931078361295 -0.4261706021896947 0.3831325304081866 -0.409943143579242 -0.4231104265157738 1
-0.013679404710777221 0.37211404567778605 -0.35871732897458386 -0.28900958147496725 -0.42565444476349323 -0.46394990578573125 -0.1448220427928354 -0.14758451528889682 0.4614271894771331 0.2159477992342358 -0.3756355710250967 -0.13697589009220235 -0.21815969106101796 0.2326776105091134 0.2134966856897903 1
-0.07191377654401132 -0.26419277417647646 -0.44974497178755235 0.341758052515884 0.46101009691640216 -0.30012515433124387 -0.4852335095084144 0.1201019209872849 0.4561895231309464 0.1415180032945752 -0.11208479093968504 -0.4411813712543835 -0.2637364335768496 0.37553499998589435 -0.4404439988511053 1
0.08211331658056564 0.43282972553410615 0.39643375678516035 0.3321769494955322 -0.2666185741478647 0.4378465076038224 -0.272197223792086 -0.07870010531414806 -0.24325815858889166 0.1612509570410655 -0.25984585343972744 -0.28229558488186435 -0.24708425788485544 -0.08192944539889324 -0.3022131065326433 1
-0.46496844342593957 -0.4991719963619603 0.15162267133612495 0.4302661500145907 -0.4006561201678943 -0.1806389733682211 0.14750935693000378 -0.1142342654134606 0.17022545476022877 0.2460208782379082 0.38911636997353727 0.4180479812457504 -0.25540135825381216 0.36189878446509094 -0.010851912550016052 1
0.06732323112902949 0.43585186485923966 0.382169795327589 -0.08895532958931629 -0.21330171005242704 0.4329485034770457 0.196400074362579 0.4686975295510445 -0.1218314402516123 0.09728166093903134 0.08004124309413985 -0.04460563738745993 0.4068896319788996 0.46637895144040764 0.2084170456987524 1
-0.16163885084861584 -0.45481669134443126 0.45926261194119355 -0.23542205720635034 0.3739897826388656 -0.0035708018112489137 -0.4551885629984216 -0.01842559025378654 -0.2968939306883486 -0.33270141758820426 -0.05305869196371349 -0.08937651051635354 -0.33021133516522805 0.25595153381594116 -0.3758521858211412 1
0.18828221740721118 -0.4260989908266217 0.20781226683397158 -0.18442224916258187 -0.256883692870427 -0.00927628762410082 0.06472243629855479 0.19766284586061988 0.35289856084361015 -0.22685727573333214 -0.0697636422624428 -0.309123110498958 -0.1964627152890741 -0.2553973406323914 0.030522567799822986 1
-0.13973332575180675 -0.1607377069887297 0.4467825612336943 -0.11889043162142765 0.49481356133190946 -0.35632280718178666 -0.18530413770556375 0.1809531518122406 0.11425987052543352 -0.12383306027613572 -0.3634760219710532 0.07157042616997855 0.15374772707931594 0.21491932831494842 0.025057115709404942 1
0.43085487807214495 -0.35101025478337733 0.35685642134672424 -0.2623090395647899 0.23379945333006036 0.19133409099887277 0.39382927773157117 -0.4378662328805327 -0.10056644694933725 0.18041504309925027 -0.12950092392006562 0.15562827092130527 -0.11223670469473268 0.4537216918372906 -0.03645944256790912 1
0.11780568611550957 0.002409419793699019 0.28862597459601247 0.4815397545538973 0.4979120299640172 -0.2881181952911501 -0.44405087947751765 0.12452792079038044 -0.3570429039857492 0.05272171553692462 -0.46135067276692665 -0.0374237409125433 -0.4991692022577753 0.06468432332988105 0.04458103820067749 1
-0.06944473529954276 -0.0829387555214618 0.050329589203579106 0.06974717128631103 -0.32536142463545425 -0.03265096284948865 -0.431394559792887 -0.3403368390846119 -0.40555399016390625 -0.4240831547228363 0.10040859387811485 -0.4562606450519324 -0.11385720331000271 -0.47931599784001855 -0.04455317970102557 1
-0.31644211845367853 -0.16767600712388053 0.29702862797862706 -0.46475286063366106 -0.414103080976837 0.40695677039958533 0.28053915467341317 0.366972811364249 -0.1655783937103571 0.31739198468573415 0.14980356895214042 -0.43551969903404 -0.49364111082424245 -0.2829423748204005 -0.42978007504273064 1
-0.404321697650906 0.09898004268925553 -0.49194486502956325 -0.023200186049211702 0.1947528904603535 -0.13887726978238468 0.09439086782569572 0.19718185337002891 -0.355926525723838 0.2720259318346875 -0.4262454688998524 -0.09970744670013787 -0.03354554953885247 0.3037191902115791 -0.3911437959063665 1
-0.46806987416557944 -0.406647092790662 0.48241692198352126 0.043782523892678005 -0.46954264075888474 0.011082228647393166 0.20370420836449887 -0.18761179612905143 -0.3909052584942381 -0.23068176173139798 0.26882006059612573 -0.2763049355503697 0.1889789435326057 0.43603622854585633 -0.09633190116922385 1
-0.2485468450047107 -0.16499163835802166 0.08167975907116576 -0.24088727329986825 -0.0873695982623055 0.449028175021674 -0.4555983548875936 0.03110811949058112 -0.44209125900077983 -0.3432115658752093 0.11514106203603813 0.028509938382453526 -0.4317889232557848 0.08420098394265274 0.06438681909290678 1
-0.10360118723359002 0.2927928764160581 -0.0064686139228649076 -0.39482363653369124 -0.10203098119933629 -0.34555453335973896 0.19526634948054 -0.1385423429778806 -0.3772860057509353 0.16096586803851176 -0.3676123815716984 0.08581048335045993 0.03448381454542193 0.3932624160286685 -0.17785981116415306 1
0.18915457582533868 -0.18305819352980646 -0.0106013651055199 0.04018110781111184 0.053355579997346525 -0.4907890621782518 0.3869355408692383 -0.1537612152153427 -0.37325212146410025 0.3746235101454435 -0.3042876661788647 0.13545242160033177 -0.03564628798709857 0.2363568815268826 -0.31757250058714115 1
0.16912233553281186 0.01864520588055596 -0.1672924004334756 -0.4681347457856435 0.49836647759622676 -0.3676539091048143 0.3192392056751645 -0.20424991970758632 -0.08160392125742644 0.1985509508573794 0.17965121303134413 -0.3098735441410103 -0.32360927978512577 0.2268989441837087 0.3365142396885753 1
0.1966647543336565 0.2490043930495407 -0.42141605811217975 -0.020687907354295043 -0.10836615762203916 0.28339339424709753 -0.24225339262864698 -0.41700294979008456 -0.06373599214650383 0.44414267603197644 0.2664461703637482 -0.4528921841808703 -0.2922883557351814 0.05468823528126865 0.24600998719514688 1
0.4641585979653966 0.11379042874419765 -0.12174500329097082 -0.10376993660915357 0.3891318808121361 0.35836020964784765 0.32877628501875533 0.4910054953444508 0.022779855797218085 0.2888686857029906 -0.03618455450484659 -0.029496143027273658 0.019272330685819794 0.44713028283101997 0.23803417270678207 1
-0.025167653090433784 0.4448080614929021 0.1545675106702591 -0.28214349156535945 -0.10000319753992115 0.16384318443567558 0.10978350880272214 0.09631190856335925 -0.16005042451474993 0.20981810940313517 0.4220941387458017 0.4057272099393372 -0.2741371734924205 0.2908643574893428 -0.27830060763716613 1
0.07541709300435373 -0.4928170156602186 0.49926803357981353 0.134260533776842 0.30335319453456755 0.2753988226983831 -0.32048496248675407 0.4672562166776171 0.42645284803780203 0.31291794492067293 -0.38161373151587785 0.30264901758680407 -0.2878976403792899 -0.01401102237647145 -0.22675091807719372 1
0.39962031012250265 -0.33804561741672123 0.41802888197392496 -0.47706406236744814 0.17655200375501046 0.04811284436622987 0.2165140892987797 -0.060331249718321156 0.3027336822875385 0.0174451484861593 -0.002536522178230749 -0.3848866127484811 -0.19782734557003367 0.3361812341079843 -0.16653867765699137 1
-0.4721225567636631 -0.34120906545047247 -0.2910878497504321 -0.2625899585424869 -0.4712769874356807 0.30222259453182054 0.29508173128877613 -0.4655082871473165 -0.2502600686206946 -0.17117116644615027 -0.13858081454297078 -0.24705188865514172 0.3105146039828096 -0.42052500489291456 -0.3253770660078663 1
-0.13760852984502514 -0.4741369260729613 0.2824139463731985 -0.37270652614320654 0.19408053638214617 0.4215698494030409 -0.49479989702378846 0.19820259938679452 -0.17849848768776533 0.45918688445251743 0.02101268273144241 -0.47756384903509363 -0.006983364127305602 0.417977759664523 -0.1156717035648972 1
0.20837642879072493 -0.2714653244741293 0.3177275768030824 -0.12516109824503907 0.3508121730272341 -0.29633937550258727 0.4342812070991514 0.09207703695285041 0.17695501099555666 0.2062998232607952 0.29902838965488265 0.1611599676664539 0.2439471094521961 0.07093182653036456 -0.08027199329528123 1
-0.16577059548154727 -0.1357743929307883 -0.22744263380381935 0.16638411719093105 -0.2990102861175531 0.1640514240462616 -0.13229837164541725 -0.42607279760771855 0.20791534796671374 -0.11136495858378226 0.22483225624194525 0.14718474860838415 -0.166142711232398 0.44191713077144046 0.22469880167753775 1
-0.3603679734555275 -0.03333263936794961 -0.49710548815715316 -0.4773889182003487 -0.12759357353667755 -0.13219323659111626 0.07456201037605081 0.3689988069141217 0.37843306254313747 -0.4619597138997693 0.3027123873974179 0.010993822345683468 0.3876485028792199 -0.3615716584436208 -0.25179321464547844 1
-0.4799903472611746 0.33376770915183207 0.22628559706454332 -0.1553301992833641 -0.203815769373609 0.4274067356270014 -0.035129570498303786 -0.3979512838265492 -0.23249207975003439 0.2489958204445124 -0.48373562445471596 -0.3761107263431196 0.021825147961606173 -0.38478739072406776 -0.1387551241748851 1
0.06354404431934435 0.3726715954693278 0.23049572778745853 0.025985269917973675 -0.17849629795690758 -0.46659450538937297 0.10596857093211154 -0.367334036269211 -0.07926661773816823 0.14740121824590713 0.12064117306213129 -0.08617200991940488 0.39952609076305046 -0.2377705269633119 -0.4694854527503278 1
0.17952572062274663 0.28924987914951694 -0.36643550801621927 0.4028884922487024 -0.061542807034815294 -0.019909763715935447 -0.13051807633658963 0.0484533042397427 -0.3253808444746046 -0.4784275108818231 0.4914711262225746 0.293497266455249 -0.3562048348298106 -0.01587991904296282 0.2771260820232724 1
0.04834165342711516 0.1697767022705019 0.018496851056537422 0.21960480154957662 0.48115469565976654 0.03909460108796947 -0.193959188342248 0.301431345798543 -0.21025900621713556 -0.3465004617259887 0.11208774091634488 -0.4501438149267055 0.05959089893995628 0.06927534601437269 0.1796214670250471 1
-0.07664801149665612 0.33153605116837237 0.08753014666413372 0.20136890357859616 -0.3559587857826093 -0.12975793884610365 0.3805934919876235 -0.1014164929592738 -0.4422381036940378 -0.27326076075088046 -0.22489802369913525 0.3711153856843584 0.3169171689843302 -0.46154394491588313 0.4050545175897835 1
-0.4833223699129843 0.3756320044579696 -0.4178931204148063 0.05507147459417505 0.2937118144833669 -0.28746005421838017 -0.10969581964627795 0.26885488560650384 -0.17317936491700914 0.4555282836067802 0.09448996753295791 0.12462741512815256 -0.34497611998974975 0.26014334337977085 0.40562551646529343 1
-0.004162927847928932 0.4892626575327904 0.15142649984528855 -0.03990206276757924 0.09159672124972995 0.05937883977618974 -0.14564483007981222 0.23830153466077808 -0.26320181172862 -0.006650679178689001 -0.10831424839973136 0.03040383945483871 -0.06544887267006627 -0.38644037823218014 -0.38399003985125313 1
0.334613284059191 -0.23066234403246455 0.021536578416576302 -0.3292726152654831 -0.3233929087482573 0.1563980675702198 -0.06030778803888859 0.18441837519148396 -0.37894154151445425 -0.4947630330079359 0.14178980013973563 -0.46633376474413846 0.054119256559722606 0.10219447209308363 0.28826354796535625 1
-0.27719213073785287 0.32571523279605386 -0.1005637973997695 0.10411054973200362 0.4273387896363169 0.2673807364555527 0.05767893108499622 -0.2949468900215607 -0.4169424090846091 0.43872955512102285 -0.16293806613039463 0.24039441523536897 -0.11532570915620488 -0.22377483428654765 -0.42455266301895866 1
-0.18510703139164875 -0.4570187617519669 0.3899639681988578 0.37077113180589394 -0.2913226170537834 -0.4131815710515018 -0.4543641600517525 -0.11072016765664794 -0.056104894780573344 0.03542343969106687 0.13421455172996022 -0.26071851744234575 0.4469304347301353 -0.012734430094515248 0.1784614695672807 1
-0.4057716346685176 0.19499265699941182 0.4454788493206301 0.4615655501071323 -0.45980197337214845 0.10715206322049298 0.1012185493056641 -0.018843358336010363 -0.48545882133269025 0.15299598481855814 -0.30137272003247884 -0.38999693432501903 -0.12744142827592997 -0.040483267034696846 0.016715580681019748 1
0.1522521806315701 -0.2780171447620322 0.3921577407081426 0.02845499464169099 0.017185191108613274 0.3508068037549815 -0.2100531333939767 -0.41783336256974557 -0.19954470918256717 -0.21522846900485548 -0.2733484093855052 -0.4039363415910536 0.3767709138743549 -0.03502557848444543 -0.1563018088265703 1
-0.030652558268330132 -0.05576680030626935 0.10761426278787345 0.18026068769011427 -0.3209658498407747 0.37222213486633104 0.08054414001231347 -0.02384034955763592 -0.38238213410010535 -0.37982689999801444 -0.2392601627364327 0.3404376908759291 0.39867562872019213 -0.3936417498323094 0.10123502476434709 1
-0.37414818613808776 -0.2568399333400112 -0.4749110374606206 0.07804797244718487 0.17674147525088135 0.21898337724772265 0.4343012916398684 -0.21957098982580148 0.44988469298703415 0.3863366538440237 -0.4572053079521502 0.039477580118985056 0.24376094873846998 -0.3164182090385571 -0.3387259460603387 1
-0.3050394729168141 -0.005471083061545534 -0.17749904884113377 0.3938597245120461 -0.15263383379643536 -0.1204421457654703 -0.17393504241473223 -0.2909623110336971 -0.12893579599861182 0.42635493641843636 0.031986485713453416 -0.3505859170086797 0.3575893695620481 -0.264219086197217 -0.4432009990420268 1
0.347363434750117 -0.2439302324436483 -0.4601372250851322 0.4734155733305133 -0.017535791091846442 -0.4545447342477784 -0.4316493783752531 0.08979554839424786 0.06517956659108659 0.03778968944619121 -0.018145794670796245 -0.3084075485865394 0.2883251122303808 0.492689227637349 -0.21693861812713489 1
-0.2457651811283561 0.0025216122902134153 0.15174653456234855 -0.36517066890414074 0.22781447108829345 0.4809289020539058 -0.4292467934522537 -0.216956880353383 -0.04397198264476865 0.23363231453379818 -0.20488275946333112 -0.19930953875780844 -0.09677504140734461 -0.2647421491001234 -0.098778381501473 1
0.2896445370713365 -0.3280909243768244 0.04258709835395558 -0.34840825573906287 -0.27205275197824186 -0.012153446244190347 0.3505983595992582 -0.053640519148527965 0.26234774544059924 -0.3803722482990697 0.060101697503055274 -0.0312648851213958 -0.033059542809343756 0.4310460137096376 0.2185733029309801 1
119.69647417859298 120.18740191841425 119.65461557108878 120.06555364587172 119.84295513791292 119.85944783263729 120.22361005295116 120.41641872632944 120.35678768768295 119.9189677089858 120.33561810956559 120.26089216879988 119.85301262950611 120.24262272060282 119.7930298352594 2
120.33744952275144 120.47436183771232 119.54617714264464 120.1711490026169 119.94957564654123 119.69278423379102 120.37640797159568 119.69174555169728 120.12083174000506 119.65382817786298 120.38241199294754 119.98451571655596 120.44286879984224 120.27998686650525 119.69594392637593 2
120.13213622676133 120.2846769034274 120.42462081075067 120.21656461130452 120.18083242901638 119.7594815320282 120.40780097002222 119.78906047530826 120.39708807834887 120.31282965370887 120.08827095746376 120.13495317378533 120.41119755053117 120.20823737851134 119.69635043215388 2
120.32982854179302 119.69128265178712 120.19749109739642 120.471932135034 120.01634450991332 119.61152878373576 120.19400463772732 119.58812073394755 120.06219933291729 120.15541520775858 120.20026134588487 119.9262310607634 119.99232566125536 119.64625121593558 120.35522354601325 2
119.94594588119254 119.90174208144629 120.0916560119744 120.25757148180844 119.75090105369833 119.62017098945337 119.58627068117573 120.46204886687276 120.30611321980797 119.84862324180247 120.41434168496217 119.99590599711489 119.80918861281232 120.4848757362425 119.9295436258166 2
120.47873634637759 120.46738054856888 120.38713959992468 120.22290729492242 119.71184888131259 119.76463327720435 119.68120892285091 119.95339310852847 120.45217115502325 119.97454682723645 120.24800700020222 119.68829518436523 119.80619672494504 119.95314944658868 120.32942051890328 2
120.17457862050459 119.68712050075209 120.26940523596141 119.5333985357365 120.20056683558865 120.13187837814274 120.48093264330392 120.18858892447689 119.57786928734204 120.06842660742693 120.48721144244765 119.57240314008199 120.22034331474322 120.01632213054106 120.23668039050895 2
119.70869942456842 119.80323395214303 119.59199902859913 120.3259616235409 119.94057810537315 119.59100708994355 120.12186598951263 120.02476710585945 120.0314161983979 120.47769256427128 119.78387628162037 119.83234776374135 120.18692087111559 120.12727941929404 120.29047363023024 2
120.11437602539515 120.19852636528613 119.66518148615701 120.00008084480629 120.07593232761675 120.41506127441656 120.4537026692469 119.58775887066815 120.1839051240496 120.40451875363865 119.84090944180164 119.53182393649969 119.77534160971577 120.23869873727763 120.18242097621594 2
120.28708449190282 119.9592993036388 120.27866504719957 120.04462750615957 119.7614195935381 120.04833825391283 120.48841664899764 119.6955480636791 120.03132741637974 119.9738655197061 119.67024688897313 120.32662763552521 120.35001245085003 120.24711356507122 119.95969445781188 2
120.18635638340926 120.45003527438163 120.38045726922327 120.30202465450743 120.11357901782566 119.875954001751 120.21698952127127 120.12314041836075 119.87608540433227 120.077835860412 119.53387573521368 120.04731911404848 119.50659644569612 119.65843543959996 119.75556699480381 2
120.40752216100336 119.94325752455333 119.57403141667996 119.69605555213481 119.52356412683629 120.19904081478813 119.68058488337373 119.74977250875205 119.75992451389448 119.93773933939552 120.44265616020931 120.12694975971023 119.76927978159827 120.16191578975342 120.35882387544477 2
119.82040381231299 119.9561595156401 119.57203906518201 120.1507528542984 120.44757265628587 119.73341835572919 120.12444709864823 120.15383120012604 120.30400821389212 119.9738622998568 120.01665626507965 120.18664655593548 119.88027850737016 119.79692024457013 119.58592084611071 2
119.74676693201577 120.29799002759239 119.87845721215282 120.14831767990084 120.45086295707488 120.11439736587923 120.16129825244401 119.88531743415152 119.65207793382898 120.40621232213286 120.00513011208878 120.1963349201055 120.0777912952063 119.93298858343496 120.31767058009038 2
119.62202605270711 120.29085781811493 120.10056594866944 119.53770101331844 119.76409264953844 119.89672978742242 119.52121765018961 119.70035494554284 120.0915003530838 119.67608385157568 120.3443789224939 119.91569337661971 119.94155806393509 119.67190247939881 119.93308744398313 2
119.53182663236691 120.39194621503509 120.47943239031711 119.68882489409313 119.58458472840688 120.40500047211381 119.90264840492245 120.23571074122113 120.33042422341562 119.80578210102757 119.60468153436496 120.38152348899884 119.81058371196683 120.13648170498949 120.11126039869706 2
119.60197934673428 119.61289441977118 120.16951602033886 120.24895224767813 119.53921454981283 120.06884358859962 120.48488663344556 119.55852190756528 120.26444492666504 119.86722678395834 120.13006219575041 120.14821258966114 119.61504790850512 120.40842295313503 119.7145468434728 2
119.83337870451233 120.3584419080558 120.41569065858947 120.4235253654626 119.90390500845612 120.3705569790701 120.35046361494491 119.870003100743 120.06096838934009 120.24812467770498 119.70550166496315 119.55917719388086 119.70953199537624 120.09715679382109 120.08748066772955 2
119.87314486195868 120.4596372266803 120.49699674156055 119.94531725292661 119.81798065066296 119.7830874583855 119.54859427698517 120.07941772506756 119.87205663158085 120.02035959732902 120.40490088919915 120.04849597754306 120.00561172833552 119.64895942314949 120.03858144033417 2
119.69317583918156 119.9232696620582 119.71546218334632 119.97468843540817 119.94230615145517 119.9912561050175 120.45644292769649 120.12710142567182 120.35597259038632 120.07229465336533 120.1625357758652 119.86047899010879 120.26503376106028 119.93992603056721 120.37274405141187 2
120.4460082824322 119.83959081507062 119.73286207842582 120.43238138093837 120.25288944540257 119.83004545472663 120.48316847826086 120.19832882239744 119.86416538608884 120.01682560656968 120.27696733950442 120.00893482182707 119.64844820974753 119.82489905545434 119.7055912312292 2
119.87944874380814 119.95282734722414 120.01554749351263 119.98114635371988 119.57814777807093 120.36947887994219 119.88747557249941 119.66229244408781 119.64325803656529 120.27553863125081 120.179627297314 120.01702847506425 119.80929686405116 119.59578029984456 119.50146077167345 2
120.03894135171294 120.12873708967919 119.88119039732604 119.83895193359204 120.0391952852682 119.55485082206677 120.22530759902078 119.65458443131445 120.19479266575334 119.70177827042706 119.66310018195222 119.96804574340851 120.47277713692898 119.57757646025438 120.41405607671841 2
119.98603389346461 120.43381505556758 119.67600746483964 120.38128949485835 120.14723170535618 119.70793688877396 120.23562029993245 119.64517611208866 119.88492120462385 119.64351156281496 119.57315797745925 119.68451964513486 120.29127132763143 120.30902636700817 120.43641010345144 2
120.4339739903845 120.3548152135407 119.89091747888371 120.15521439689553 119.62543056259452 120.36246089512426 119.61662304847982 119.87286728906048 120.18033354074069 120.17944740132954 120.46847853571009 120.12777101659353 119.68899709359222 119.91847928021194 119.87810823071354 2
120.32865619024113 119.65170850825302 120.10703425609869 119.87789356883175 119.96715368024493 119.61053918982977 119.82473750892096 120.37369620046518 119.68659350347508 120.00869637961866 120.38418640228122 119.8407290770086 119.94884836869772 120.37065920249783 120.40027154828023 2
119.9362675769885 120.407311561856 120.26439959645515 119.81272972371792 119.57309447446174 120.45558927336333 119.63813583809319 120.08472663006461 120.06843460354801 120.45001517261517 119.73726565848982 120.0736323403208 119.57087676130011 119.60029134662874 119.86360428045657 2
119.84301417355947 120.20909855854946 120.07172614695511 120.0030138206115 119.60325465597856 119.61771558835311 120.17003392467554 120.18482304639602 120.43236768997599 119.56513930341754 120.34757127470233 120.01923560311401 120.14535445565625 119.55002495761148 119.68354420776528 2
120.12248119018722 119.81286492936069 120.01418325690787 119.61528012544987 119.60034263584214 119.92203322785973 120.085965357707 120.04633744792463 120.12915713270418 120.04024696181787 119.68015534495589 119.85356820853231 119.76597825833865 120.09982858201033 120.44967799221833 2
119.87752819870418 119.92650711028753 119.56817521316538 119.96961251567947 120.14464740447433 119.67713545705966 120.42648108976391 119.71603494423357 120.15357565741482 119.64778012762406 120.49486123196968 120.1622666726399 119.90015281083038 119.55686847684673 119.92408630169086 2
119.6959886365114 120.0357182398677 119.65208559699974 120.31317757651911 119.53310856118975 119.74880092987476 119.99841469034558 119.677026068383 120.133779486464 119.84760213414461 120.03829833779972 120.21048956413567 119.91205584120948 119.51849487723061 119.77392617665483 2
120.37055798456689 120.45370844756393 120.46536494053466 119.55319580658674 120.09681620654193 119.63397707883271 119.91233676408976 119.82323345069123 119.7338650613497 119.54775380569392 120.49251915619682 120.1453820395275 119.69722309750037 120.06430929727439 120.14914677243571 2
120.49888954472755 120.39516279096455 120.25262543255245 120.27435579951117 119.83080781232216 119.5424666398546 119.9701575851181 119.78365843411748 119.50641490808994 120.10983285905186 120.4116360404927 119.82072190546309 120.46557422908353 120.02966161610337 119.51907464549436 2
119.69369935349893 119.60609455833934 119.76296020281642 119.73986459788289 120.32743558259398 120.29510777761823 119.80536470116405 119.64093811883697 120.4433802920903 120.27694230388998 120.28321115464524 119.95021814448369 119.55371023211865 120.27140011523387 119.56138102490547 2
120.36627258101691 120.26204429041508 119.53096957004325 120.23350699494459 119.83112083693149 119.56725765929833 120.28492265079656 120.03628335611758 119.91093723655737 120.35368769665943 119.55694927071242 119.93046947120216 120.05458668390408 120.44172234499102 119.88162406861797 2
120.37970281381024 119.75322614139414 119.52594422707415 119.96331829449414 120.41387617182059 119.55127930689187 119.66796563502992 120.13083745502658 120.05531559765058 120.14869947042986 120.30859332380192 120.38949585530544 119.58088151270843 120.27118185588213 119.8151530739153 2
119.68374246701708 120.03514632327803 119.70273075842142 120.25156229318327 120.32508577403001 119.87865136019396 119.69680699964367 120.46244093954336 120.21692407796989 119.89666006756055 119.9043734229505 119.847426984573 119.89981473099098 119.86758552309765 120.13140758610669 2
120.03536810253628 120.0491470966026 120.00371536398164 119.73887884130886 120.44225740729374 119.53814074099331 119.53495525883004 119.93395476188253 120.20912897292365 119.66140455889352 119.61188131793973 119.91113286852465 120.40417476447361 120.23040933497923 120.01944007224989 2
119.9988446745394 119.86315498297533 120.06147210167966 119.7929830836727 119.81690675383531 119.89781084715833 120.10680676490891 119.91575322194373 120.41345791691275 120.15850573507268 119.58117907579094 120.39023903555278 119.99884562779783 120.34135644932641 119.95901813456562 2
119.79918477433317 120.42232006022752 119.83026762421088 120.41170290899363 119.80608952254453 120.3290954299787 119.83564858961718 120.19774265591329 119.60285944401838 120.44646132534511 120.43917460615927 120.33003327237509 119.82302614573429 120.05803080950801 120.04770325828821 2
119.89594072948444 120.447738803039 119.53670367182401 120.24625931107732 119.7099096751882 120.07676945177782 119.59503556811555 119.67604543109915 120.37498174283097 119.63575286230825 120.47972272653288 120.44408153954278 120.47936476424674 119.60534884815044 119.96783189104814 2
119.86556353779996 119.78426074613898 120.01695913102749 120.01740620862867 120.22230064702735 120.42827964834851 119.7338838388686 119.88858522166583 120.0531418100284 119.79860908524651 120.08198696392455 119.78333851473354 120.34942905785593 119.6376269926243 119.67107803938012 2
119.5626662895812 119.92278556393063 120.06075280440895 120.41984436923342 120.01050196983167 119.74997550643302 120.48822599519434 119.5338913782727 119.59164348091923 119.65262366765592 119.74027324161659 119.92046939253196 119.92691536801604 120.45547669714038 120.2104895684017 2
120.04477838651232 119.98467178852832 120.0790588435597 120.30221088045438 119.64249245357064 119.51387032425592 119.87099940664605 120.31094332418894 119.5634619372494 120.1977680591209 119.89017087648958 119.95911947308433 120.02726009070582 120.30324584513505 119.91727556801085 2
119.60471487887133 119.8942529005737 119.70957954918286 119.64353023349376 120.07673430215971 120.31382943011859 120.24329175259194 119.60997693593714 120.11156830640411 119.53906938105474 119.83075976315953 119.8931626066032 119.64398721208252 120.16425129434793 119.7210946266597 2
120.29414762749808 119.7849607020038 120.21481595475494 119.8995270687797 119.5126536343776 120.31631737811259 119.58487575762413 119.95217916098414 120.2486579572533 119.64841287769529 120.0716855789499 120.340997086011 120.41857030619228 120.06999225021825 120.11962819949831 2
119.62803252456226 119.7534198481606 120.26672189261507 120.48796052255585 120.23296043405388 120.20071671989476 119.66923509437686 120.4723095952561 120.4930540698114 119.65201068594958 120.29504484477694 119.98785045199018 119.89877514985312 119.80329430692291 120.46695686133846 2
119.53993735258197 119.60658309867708 120.21726737274778 120.45115253105898 120.39917015108419 119.98990859497195 120.16132095111408 119.99835839111289 120.49225291956554 119.57417011792937 119.66045856061429 119.85826113043882 119.57527304550776 119.90862934093047 120.08386639178629 2
119.92772752574156 120.20284262009416 119.65036942214086 119.80649764610678 120.29316563013401 120.46014703562228 119.69225866889829 119.86512865907486 119.53934699977783 120.25229795582237 119.99693658759797 119.88917624092662 120.02930322468485 120.02009213304903 120.12764604720242 2
119.75816120119103 119.50936216790174 119.9296836312897 119.73682328803477 120.3118868778782 120.20969400607184 120.20799550926154 119.69765240850228 120.44643184141431 120.39230945710278 120.30029334109025 119.75380224243727 119.77791048657667 120.27973657486146 120.21230355953524 2
240.35307949164218 239.5502518325454 240.3025522720987 240.27233107897712 240.36897679488044 240.26343261658064 239.58438026717414 239.91292792882268 240.10346207376688 240.1589880867089 240.47667429073937 239.6240987265587 240.3655389799602 239.75292711765306 239.78882393911277 3
239.87772375424055 239.51911614790728 240.47162046779394 240.0672958205263 240.21395092271712 239.76816249915365 240.4930869725781 240.22337723202165 239.7238420422179 239.62920805195068 240.33441529267253 239.99397433107 239.50689288146037 239.90115407975472 239.55311106280672 3
239.64799564257987 240.18178501221288 240.4235030594356 239.53260513306608 240.00854712640083 240.17492011015682 240.17765607629642 240.17929590209027 240.41134120371052 240.07311695448487 239.76387333534376 239.62169204782174 240.14098348364905 240.36794571148363 240.3744485160771 3
240.23646272658976 240.2895717488897 239.85115395988456 239.5163892843276 240.1316348857898 240.21517802795412 240.31521852100187 240.2030904114627 239.9310716098568 240.22256652102803 239.75879056857002 239.93891629595686 239.74171322418482 240.27777672140556 240.032513714623 3
240.002863774608 239.76181403261228 239.62741161594525 239.61557598916846 240.23746594000394 240.3903653323392 239.6973659622057 239.65512274007867 240.1007261817531 240.0528772726504 239.68931599025277 239.91068171207237 240.0471157864199 239.76901606812618 239.9915562859634 3
240.40889371716432 239.9569528523785 239.8243025688809 240.41708123410805 239.79138549266796 239.99331162068455 240.00302155071782 239.85837447484008 240.0462674243799 240.283985960228 240.17215177575142 240.3680443989644 239.6893545189121 240.25327353301 239.9004895567341 3
239.7147055236861 239.88625169486915 240.13411040005306 239.52433042791844 239.69695266234766 240.28098344593752 239.97489383112182 239.53092924518722 240.1747642963536 239.56357414673244 240.0183406077124 239.51735051328896 239.933699003689 239.99155583523853 240.49661291923755 3
240.02647572835363 239.998591981503 240.25783882712594 239.59294389816088 240.19104814910153 239.56893214343143 239.5380587448136 239.79050180016114 239.84242300577853 240.34268601349507 239.56593676533876 240.00209398133418 240.04303774057306 239.58473208424735 240.2953881074611 3
240.39932050167008 240.04962322740576 240.1023240505328 240.44266369110628 239.8920990228718 240.36660956700135 240.45517487923485 240.3246511667457 240.15058038391092 239.91043336275865 240.34511278153136 239.8637816152253 240.44817031973042 239.80688812898202 239.56297731347667 3
240.28119931050148 240.29633070158633 240.4635334117676 240.4908868764486 240.23528106604246 240.02051440940005 240.3991487756406 239.85560740789583 240.2751927475519 239.62947996495194 239.85438345940045 240.39993081298596 240.28166218634033 239.57138605733158 240.352266056067 3
240.48311954782548 239.83259829909883 239.58926739100434 240.4210872836609 239.98441718567085 239.56993185909462 239.90709864484106 239.52175527331252 240.04191469236133 239.51992933790973 239.9711315419055 240.45810451157334 239.61843751117345 240.44724573301104 240.4989612706931 3
239.85024386784767 239.81411091016633 239.88585004405726 239.95500162495003 240.32375992556973 240.2117112597266 239.7492717656041 240.27116306974912 240.39245853896722 240.2971130260056 240.3047511375634 239.8982179375449 239.51933265733769 240.39103356114657 239.5793398521696 3
240.04091906977558 239.83742408636175 239.79679864641534 240.48842488862113 239.6793339813787 240.16975026354456 240.33674188078672 240.24706567741492 239.73578777360632 240.178284835052 240.11767863101565 239.86947739698712 240.0249743015813 239.79630815942105 239.76842059666728 3
239.90841093234474 240.1539558225877 240.29340807022507 239.67157805301983 239.79753410934921 239.7663417288217 240.4392728884251 240.1590273485915 239.88667427196933 239.63622136359572 239.82750460762034 240.3993907863014 239.9044462618741 239.82382779365344 239.58961072170527 3
239.66027568893733 240.16654368605865 239.73338568449165 240.28782451786455 239.56771511301685 240.20219648900135 240.07776691447603 239.8925150198918 239.64467907591845 239.6752344675577 240.21181797056897 239.55831556324637 239.9522212084172 239.97843500441152 239.79612072429904 3
239.95189172225682 240.15797989379857 239.81641777968596 239.7363102193358 240.46074994735193 239.50564483983806 240.2981917174329 239.94447473666497 240.06180120467602 239.65353236353369 239.50872809272144 239.74279482149277 239.6794878597969 240.34115651492812 239.95531109165992 3
240.2109205516496 240.15740864556057 240.2749059308457 240.23247451691904 239.66421935157626 239.74256834102417 240.32837674113804 239.51605557380475 240.3384516963231 240.2120026912452 239.5272377663492 239.77056721332917 239.52366347618636 240.4739905045907 240.0960944264866 3
239.95845240125354 240.19042508420878 239.94500314698706 240.0836172061619 239.90890509728442 240.3062150475402 239.97578331442386 239.8838001952799 240.04549968187902 240.18062819112922 240.13260426019934 240.1099855556171 239.87002464796274 240.1250843432065 240.07049223195983 3
240.1244819224336 239.75249245983034 239.71161197957954 239.5777696991541 240.38996095515446 240.29557112252616 239.87531672601116 239.66472245170812 239.88898302700284 240.2751342256585 239.53807533449714 239.92279979858642 239.7826611948107 239.59679381968004 239.65714260433734 3
239.83412777793217 240.16718516419104 239.75328642737983 239.79282629060276 239.7275569148025 240.48642159445475 239.91426689472885 240.461888123227 240.3598563742038 240.14730985569022 240.41232853850502 239.7378975926349 239.50326230145168 240.04668598661306 239.56817796737974 3
240.20348318940492 240.22121146926273 240.38796545878 239.6421185779719 240.02793685409674 240.38177509430326 240.12052553834616 239.89280534799047 239.986550332519 239.77612718940796 239.93858243200813 239.82173167766484 240.1760224445961 239.61103651085233 240.1447182372254 3
239.813635848983 240.07886839161878 240.33074826449607 239.53613893686875 239.9129980966637 239.69984971944575 239.625530342968 239.60225035967756 239.89744488672184 240.02691180268178 240.2157568009631 239.90045742791736 239.71129487081535 240.46388858519865 240.44637696537617 3
240.3143318933468 240.30259075157858 239.8300817394239 240.14477900985852 239.98047195165086 239.5193539106163 240.25410256694983 240.2908282136064 240.25847992453546 239.96042729935104 240.30128698650088 239.55768565425942 240.48233689711455 240.19558270995643 239.98519930320649 3
240.0828811955383 240.3082529802667 240.39540422414186 240.2636602518351 239.6962847163221 239.53790740083858 239.5776773255518 240.2895700395551 239.61673667016112 239.67024069755183 240.0708230522714 239.56134733101996 239.59758074952157 239.68528174245955 240.34287318132965 3
240.0545839212575 240.10791638051788 240.0639074740619 239.51610308594405 239.8080016815366 240.11354646777195 239.65912077905034 240.39844127692487 239.89527017497778 240.37035561516745 240.32020217210126 240.35946042898436 239.59811672614822 240.49646065105958 239.50399356288324 3
240.05340238237932 239.89278221276948 240.44762958446262 240.04085782179476 240.0070047504045 239.7471725027992 239.57164867600616 240.1432235114084 240.0521110533389 240.27731250072648 239.93350161985384 240.3070976155573 239.97391671804294 239.88736354823104 239.56907079774962 3
240.33045750311018 240.44327444968914 239.85228800028784 239.5128176612826 239.79990563012194 240.03915432874552 239.90793196589203 239.83840713838788 239.8925748622394 239.71584813261666 240.08043897595957 239.835200558983 239.9892338408175 239.65263213038506 239.57925083510708 3
240.03221119120025 239.71587845238727 239.54742573441823 239.62814080675292 239.9278521732964 239.65024841294374 240.32066684984724 239.5452134035106 240.35298240273391 240.0336030891701 240.36287682557906 240.02375054303096 240.2069147164647 239.77820227004864 239.6167483762538 3
240.3347872782629 240.0031587748142 239.72310147815742 240.0775021487283 240.19502088375478 240.24267088850044 239.72428791877132 240.11186832574035 239.7772668159817 240.44847428227152 239.92641613739337 239.6058910105569 239.90548956613395 240.11590338919908 239.83600910108376 3
240.31822542751252 239.88826293331542 239.9638730337151 239.59722123331832 240.3521005914029 240.38384469123704 239.98959066817392 240.47443245137706 240.05477161205857 240.193260404195 239.93013905697399 240.38832057366423 239.59533904145235 240.00017549321888 240.01241477896733 3
240.03713205295574 240.26388144502505 240.45246764733133 240.17281849285945 239.7533110287357 240.3930043971861 240.2644983726826 240.35981111237683 239.5161581127455 239.7107251995475 239.7923585817393 240.47569772434164 239.55083765058427 240.02369870729208 239.86012168824394 3
239.68210045058754 239.68101703978726 240.29779408571684 240.13527680150557 240.11614588312713 240.1652684242529 240.14724587729472 239.67361303813902 239.63977163254108 240.05946352579122 240.2991066379352 240.0774830745701 240.3538746248142 239.89554543120056 239.81129207336335 3
239.75470079007607 239.6049225571286 240.4650798977625 240.03029569271703 240.35617471738243 239.99777448735176 240.0130675519407 240.1696877627123 240.0942492045264 240.0851675683377 240.3730667367547 240.22062725907162 240.3825374708512 239.59137116244642 240.4316893829862 3
240.39401727715534 239.74250910496943 239.5905723890798 239.6299783862326 239.94003392705986 240.13835693217928 239.78612013072055 240.42123616456308 240.05345928221385 239.993957214492 239.76993759613714 240.40780646932035 240.06798387840504 240.08284232225293 239.5588098574241 3
239.52766371420742 239.7957703111733 240.13411459403832 240.04294984202184 239.9158147171536 239.65507822910556 239.71098649787714 240.26963121015922 239.57214435485008 239.56005344809702 240.26670456227544 240.45299744113586 240.45039143070966 240.29159796555953 239.68514224992842 3
239.8251993146584 239.6438831019145 240.24944100301656 239.50011718721296 239.85985172022333 240.2003625926778 239.55955168296572 239.50938548296082 239.72013217898007 239.88075366901327 239.73088976947258 240.18592743464626 239.74890254296673 239.94816741976325 240.28210633844813 3
240.11106923565927 239.5560119957753 240.07814131574034 239.71758197717236 239.5455019645016 240.3829274230261 240.12464179532554 239.8570810803075 240.2178608405676 239.5256822853785 240.09008098451685 239.5489327580589 240.30732480008888 240.14111467534147 239.59428215071227 3
240.3083491315181 240.04447703669743 240.49495103311622 240.10184041599774 240.01129092666582 239.82771805229 240.03321922661328 239.51311885239556 239.56011669906016 240.01878995574128 240.40901306381704 239.71963353836952 239.85005264749873 240.35930699630242 239.8673320944755 3
240.0619307015024 240.14208685019184 240.27798802294907 239.70734790457985 239.9020991865532 240.28544158061538 239.56175403226052 239.7595344955455 240.2406289317456 240.45686416767964 239.96195701396704 239.81626658281846 239.94573292345137 240.4904769451316 240.39630859576096 3
240.01562719332136 239.78194301191667 240.3126527189512 239.89366015309236 240.40417740989483 240.10507011841588 240.35272476805616 239.83007854911963 240.44568490470925 240.38014205911207 239.6935088087713 240.36737529828625 240.3081425036983 239.80125801681598 239.78864296662582 3
240.44880779418776 240.3247442711355 239.69217439694782 240.37226596157532 239.7924028427954 240.31996111779748 239.51622442030487 239.79960498590873 240.1386109130123 240.39361386467579 240.0080695652673 239.73518806026902 240.41089602468455 240.45449972213245 240.00289101196444 3
239.86918339421868 239.85987229199648 240.26123955347384 240.1691007032479 240.24338778817256 240.41649553273993 240.05541698378195 240.32587365318577 239.82662781301798 239.72544895012265 239.6454892241257 240.2033673088398 240.3687591404912 239.73370641555186 240.46207307907866 3
240.4581366050505 239.53248223469538 240.0022075046153 240.38658803210961 239.91763971443802 240.13240086500844 239.8382953145846 240.08688078949902 240.2789624768652 240.03946024963585 239.78826406205923 240.2618216012631 240.23575118946883 239.66132992981017 240.03888654985548 3
239.54761607302345 240.17187326599432 239.87438338143554 239.57822673850362 239.81488744605903 240.08054821725003 239.54592629971842 240.4644408160904 240.43635684848243 239.99784191448273 239.94017036432842 240.3760308335455 239.55960243685675 239.71753114274185 239.97332045683513 3
240.39799971673816 239.81678867143464 239.90972489940486 239.53397647557395 240.30498595095406 239.8867444003634 240.166557095033 240.10864640645764 240.01358862391044 239.6071780507895 240.2394695215799 240.33336312245225 239.92787476590672 239.743753994837 240.3290598102241 3
240.4220267676253 240.36674064815716 239.71001473202048 240.26240149128944 239.9105743366298 239.78273028389728 240.44018667069525 240.2509286070921 239.97909080399813 240.090963059013 240.26945194875452 240.24825643868704 240.42637279198644 239.55758385731468 240.27350522674809 3
239.7754881629458 239.80899750658784 240.0113464413234 239.8458670687072 239.79007383884198 239.84472450363086 239.5689241031109 239.69602987542387 240.3327398711441 240.0261916353037 240.36940657995828 240.17344150942677 240.4188774317751 240.18247374803602 240.1610009744603 3
240.0623187362627 240.3393961078431 239.84478053916476 240.14744687598986 240.2521781019994 240.2877444235185 240.46761593510584 240.1757130579268 239.69046345550464 239.7782600607358 240.1509962738538 239.90991222526617 239.74203713792497 239.50512348275745 240.27871391861478 3
240.18294625115442 240.00951709881588 239.52378062737148 240.2003485561255 240.13972090640095 239.80968691500297 239.69081464875842 240.10613363039246 239.53087054778248 239.90184769311318 239.86056972913386 239.9852813887309 240.26766888831452 240.1351569667891 239.6117449270584 3
240.43528973369877 239.98054367655922 240.2166041953754 240.2619585134523 240.27533402669357 239.97940227653612 240.33991140362934 240.1193651305618 240.24335065565091 239.84619119797364 239.9849916601919 239.85126411903593 240.2059554923541 240.46817272825086 240.25367887970256 3
449.52910755384073 450.17518416900606 449.7660640304468 449.86733724214855 450.14614387488945 449.61487926932494 450.3770805516092 450.4629917507277 450.31147192845606 450.3994402817208 450.0893430439644 450.37903761858695 449.9274411194785 450.25307018753585 449.87688405047766 4
450.337213811489 450.30938818376694 450.18915795383765 449.9203055060175 449.5396514097643 449.7142622519811 449.51648902674566 449.62346575162144 449.7774547317546 449.8502566450012 450.1683142663195 450.05011283641 449.9408724273669 450.0922651519483 449.6019722625985 4
449.8530022310392 449.66231952701935 450.07947012807335 450.26581620730656 450.3701637231423 449.63672227910126 450.4612353702213 450.40472935466954 450.0852302461515 450.09426599052205 449.74547975653735 450.27190104435425 449.63343459106653 449.7771051425796 450.19078290017904 4
450.19638786229507 449.6191274103328 449.820830841295 450.32793520486535 450.37275421336216 450.04172950406934 450.18332639628653 449.98663143160155 449.9941974727552 450.204501575577 449.9813311977228 450.39964097456914 450.09158054230227 449.6083893689095 450.09838193936883 4
449.8642493024712 449.87607562291623 449.7670682333191 449.6922552537107 449.8278683493982 449.9399730603657 449.54497501826916 449.95251892619876 449.88245002581317 450.23652445521554 450.4233981845121 449.80845956299856 449.6984102461295 450.02432446512427 450.01422758815625 4
449.81476454695377 450.3675254474149 449.5258237579634 449.78165852472284 450.24014586255856 450.1270821554058 450.4745377447409 450.4706617124547 449.75972649238804 449.87773677859553 449.53414848882323 449.95186973664516 449.591203404587 450.2714724024747 449.8257895874091 4
449.67815135700135 450.19545528134967 450.4497484125118 450.0969481400035 449.97596015724304 449.62666586222923 449.61072392322626 449.9265275787329 449.5001213681662 450.1235906174867 450.02390263614694 449.6231072366159 449.9130696255096 450.26222626743726 450.48004069788556 4
450.17448070419715 449.92657116001067 449.62692257934975 450.21485067804537 449.8025205384715 450.35485096575655 450.1303225777163 449.70690053799837 449.88841904222835 450.088446395569 449.5278737651592 450.21269011541494 450.0487685326997 449.5362686446196 449.84846632500654 4
450.0963558232609 450.08017744439053 450.33983666515564 449.5847061503766 450.3099716043664 450.0880193554787 449.68898615939185 449.9718030302321 450.0230925646722 450.0415341313506 450.4727809759986 449.83565759013607 450.4332866776762 449.8771621543633 449.70270378657693 4
449.53211497677853 450.20798920987426 450.2321766421608 450.10087096067423 450.3071495077239 449.9325884790551 450.38511174334457 449.69500062742003 449.5697758662633 450.2858892764498 450.05555764633795 449.8094404732367 449.7259937750492 449.8891002441318 449.99507164940894 4
450.2628490791529 450.17325734679986 449.82746180695716 449.57315454869513 450.06863865278467 449.72311872199236 449.628511766752 450.05543722673207 450.3448351755956 450.0865123364142 449.7438955401781 450.37105163962843 450.32428138432863 449.5021297828992 450.0800825600681 4
449.8918812365456 449.5502507295498 450.40271452204263 449.825498997595 450.37360705675684 449.53470731243755 450.38601319643556 449.94748360528484 450.10323606130873 450.00279531167905 449.97663852059117 450.01184259874196 449.5020167232239 449.59082521818704 449.8249336049656 4
449.5248007171143 450.4860457710655 449.66044427818264 450.08868424631123 450.03818028261236 449.86320157666853 450.086098787785 449.64081048029806 449.6882334962535 450.08015017321355 449.7289632487221 449.88231309861334 449.9345823196197 450.08005783600976 450.47615432177577 4
450.0817595955018 450.1238161231715 450.05654758613935 449.75133340180287 450.02058930898073 449.6119037536118 449.5332765170808 449.9203040104502 450.43480306727326 450.1391481475444 449.6228207668475 449.93855140633616 450.0929517741193 450.3543293755351 449.65529625950234 4
450.3953415587316 450.0865915163313 449.553474251814 449.79053384676143 449.88572893308236 450.2485869105372 449.7575235335576 450.4411646071925 449.8424109157425 449.681769507585 449.6711431339714 449.6000157165606 450.13142240173397 449.50134224949784 450.0227853094937 4
449.8841632309315 450.0789914052344 449.54380368281375 450.2352308676022 449.5125825824733 450.0740566670865 449.8411777097465 450.0775585606688 450.3403780470091 450.3213114510561 450.4202311507579 449.5955929098717 450.4345874974266 450.46834329439014 450.0339541400208 4
450.2925563280383 449.9925418091745 449.68513739218224 450.003436860365 450.30264465281823 450.4227614463049 450.2841598827258 449.5582163478038 450.25864156882136 450.4870568212604 450.20631042841893 449.73021123646754 449.9134109649163 449.6011876265515 450.1985945130948 4
450.36412698271 450.27502006844264 450.01927223342506 449.97880785191205 449.55243164711567 450.33479511327596 449.96549145641944 449.9802752429194 449.51051405834954 450.39519516256576 450.22419786149317 449.8294788642604 449.66107401918316 449.8663857173658 450.25810583623115 4
449.80289278450977 449.5719181525095 450.32510463997045 449.6982669227833 450.01718772542347 449.5994218972884 450.3664727602525 449.65133015587537 450.129685941309 449.52090213655725 449.66469043681064 450.0546463246239 450.431171740661 449.92593843455415 450.274723716997 4
449.5369401300073 450.03532052288415 449.5379100938845 449.8375873656537 450.1626517240124 449.6436914483324 449.50303593561546 450.15704562531255 449.67782371718977 449.8540310545468 449.6655304305576 449.66766179122493 449.75985754535543 450.3033023132131 449.54798442859243 4
450.18460792886646 450.4434059796304 449.8720511889813 449.7241590037002 450.36791981799354 449.95505695261954 450.30845313029755 449.5762121868534 450.0836655927572 450.29394541359284 450.1209414966522 449.5092447371606 450.33017458153853 450.1927017196713 450.0250180646505 4
449.9104467898104 450.4125894840717 449.85958022851725 449.5228476634952 449.6292380680872 450.4601599182942 449.91051022318004 450.0900097296482 449.9401382936581 449.9188174400425 450.31764810026067 449.7254216549916 449.75721275984694 449.67215804982226 449.8471558044436 4
449.64112270872994 449.8540228552035 449.70368885103437 450.4909956552736 449.5373569695307 450.31234412422003 450.0910281999642 450.1209559231143 449.65706079871853 450.4376196104199 449.6191322369589 449.53570507721463 449.8789342048758 449.7749350154159 450.19516287290253 4
450.2380782105098 449.96171695517234 450.0228205415719 450.16236220504896 449.5607301877225 450.36072643190744 450.48118601748786 449.6243818815809 450.1519738231686 449.91373245265896 450.2590704121001 449.5183502974108 449.63706633539493 450.1245461683336 449.77618931501274 4
450.4742078718906 449.93849673998204 450.0956571068187 450.1080179743763 449.79527682473497 450.20435024719956 450.40316133827963 450.1555516207253 450.11064386773444 450.0266752275763 450.32994539540965 450.2592590117885 450.2797597015927 450.02714593219315 449.59756705214886 4
449.5579694086308 449.8179226826092 449.90795212922677 449.66837848606843 449.7037866928027 449.5189743244318 449.75535534034645 450.3946440230786 449.9606210002001 450.4507157878673 449.6839408692619 449.98041480314424 450.39903910014624 450.3334798843181 449.7753740358103 4
449.98190637005706 450.47444564679915 450.1386276596716 450.43964981496083 449.7434627778852 449.98316650085343 449.53918572064975 450.4377002909102 449.7616652384672 449.59687724859174 450.21060077266316 449.9602301977512 449.6288400416776 449.7492525853523 449.86506776384994 4
449.7851537653758 449.95098008921235 450.2750310980716 449.7933041955998 450.06622129721234 449.5410075856957 449.5727812245141 450.1063677590928 449.99402902451936 450.4189402533971 449.7212986909753 450.4447962893209 449.6069156870968 449.75398209972036 449.5247792005792 4
449.80386189466117 450.49508043292366 450.32869262540265 449.9489055800079 449.92668438991126 449.8662190880772 449.9628702251239 449.83529455875015 449.92835114654423 449.81466629955514 449.98134888229026 449.740303055441 450.25165913285883 450.2190935959437 450.13254836906054 4
449.7904327933996 449.6599401676775 450.3865411619914 450.173443668187 449.89253032910835 449.51408595317594 450.1542723342564 449.9667054620147 449.6338728901336 450.29392283778566 450.18192823526346 449.92557261658476 450.32844944378445 449.80399404826807 450.3291383330921 4
449.8668535549261 449.75015350912946 450.0960453509371 449.7459994400082 449.8994871290275 449.5286793278734 450.31945064174124 449.8896498830781 450.19274684246557 449.5373231063103 450.0099223998426 450.140126172014 450.2398117845708 449.99449867807533 450.35660782848385 4
449.55017033751847 450.4707284197168 449.7367394150931 449.5938929056909 450.0378040134917 449.8647275146249 450.00701309390615 450.27492466006674 449.67110964553893 449.6258208027805 449.63839651909035 449.8153627865707 449.97470164557217 449.81870842766693 450.1881247647821 4
449.62579004107283 449.5865154382362 450.31072287110885 449.6895168606219 450.29320197007615 449.799456551982 449.6876294269222 450.3221387319915 450.1431146384576 449.8665944015054 449.5367495894738 449.89781519974963 449.72340494437134 449.90657423210973 449.8118074306478 4
450.1449333588334 450.0731547116004 449.5870320348043 450.22081587030374 450.4411540971542 450.13883769261844 450.32311461264385 450.2143100141486 449.9584586091001 450.0606962475737 449.7310236336988 449.7253532798682 449.64015855187034 449.8691695301686 450.2414430156286 4
449.99812980906876 450.24617179073806 449.5835530467856 450.4262999949218 450.2239412390971 449.58346387195047 450.04583944377316 450.0108454795045 449.7932981061016 450.4647954414488 449.77334425204907 449.96277602905707 449.8791768280147 449.6857540727262 450.45331992050734 4
449.9719338064517 450.424695808231 450.0940024913403 450.2185525471037 449.6779648934862 449.71943226506113 450.4323978949723 449.6377747461505 449.5548095422549 450.35152876330505 449.65989030309163 450.27925738852144 450.46405337100344 449.7201034720842 450.4027715444376 4
449.8571100336621 449.878602973326 450.47294558811245 450.45115753472635 449.86622433813983 450.18681303367424 450.12744490744313 449.9581561930628 449.7877773298561 450.20037877791106 449.8000112166646 450.135392032895 449.5374919778875 450.3036131190768 449.61499379890085 4
450.4963470227995 450.195674625978 450.1150922019711 449.92789168378056 450.2508657326795 449.6109990552981 449.52649322090707 450.2618728709471 450.05891463324986 450.4217406764083 449.8118745697528 450.43155640888 449.8903154602633 449.9913635753616 449.9038138736528 4
449.7286511142728 449.73459258901556 449.97782206726293 450.2152316050203 449.72882642129366 449.98449775034226 450.44255636664496 449.94410542552333 450.3246249178264 450.0133094526796 450.45425284572775 450.3622885347276 450.44659460704054 450.0322321934093 450.23969310541946 4
450.07781099626345 449.9843720076442 450.09528575944546 450.4298746859367 449.60267735379324 449.95629822741887 450.1687289829712 449.63176748860195 449.7116216719798 450.3402382955753 449.91486417829896 449.60737398931514 449.89315825221263 450.3137573069053 449.6170800956986 4
450.4182115262313 450.1072251250224 449.7852610124093 449.7343477713552 449.5874077851492 449.6353898978983 449.8168630678313 449.78779642660635 450.412968414427 450.3270390308376 449.8531730514469 450.0919402013712 450.42414142232207 449.9898815220592 450.25504677144005 4
450.4850894525959 449.79616140870934 449.6553857198526 449.91518244580664 450.4152544759315 450.09967383338017 449.9259416904498 449.72744894613027 450.1861312288405 449.9220461966999 450.32409247512425 449.63305758969847 449.87589470640415 449.8713356469977 450.30494346174373 4
449.7987968005923 450.1576654765125 450.4489949842476 449.57357365971416 450.0901192832694 449.87327376860566 450.20105207395056 450.44713659269325 449.69880589253603 449.8031846211071 449.83633467320186 450.0400985626121 449.59774248216877 449.9532660123581 450.4958802382247 4
449.815959461978 450.34111545064746 450.3801806999968 450.36621395573354 450.25756705928757 449.5721575338324 449.5502434085513 450.326130969772 449.69219948113596 449.73966553125257 450.16958389830137 449.8840264131291 449.9994959574438 450.28792098540805 450.2630703613961 4
450.19812199931556 450.1305522189935 450.4173939572662 450.0959174036252 449.61430344341784 449.6649290334253 450.144969079243 449.9109226996645 449.78543280937396 450.2404397728947 449.69434441139214 449.5167975951815 450.0168099559356 449.70481793276264 450.44637856795725 4
449.5383258438959 449.81860663019944 449.73133477230584 449.66556777111714 450.337387580914 449.70315105824443 450.2800290557681 449.87268010661717 450.1239333275834 450.45505831160165 449.8943025890936 449.56092331559194 450.1486321399222 449.62750456877063 449.7518330651093 4
449.70204902669394 449.5359201382173 449.80522690036173 450.2588405404472 450.12428056973613 449.7599261649402 449.62464100397244 450.0565472189331 450.28949041025146 450.4468000476329 449.9650964063442 449.72123157594615 449.63618730957137 450.0074790205477 449.5703318287559 4
450.4546250342234 449.9455493880019 450.03154612582824 449.6462215921473 449.64327364873986 450.16284333390735 449.81621066073103 450.46281314066323 449.731962325031 450.34512691830423 450.36829523037204 450.44743593717953 450.38298995838693 449.78900847806557 450.3287536162673 4
450.1235991913183 450.1077736211361 450.02031542672717 450.18724494420485 450.3562337127013 449.7510600342591 450.35722544344924 450.1384527295361 450.45237526599965 449.56937117060767 450.23126391400683 450.49538569900756 449.59782610648244 450.2195981987198 450.19085215432114 4
450.1752359146469 450.2274894428047 450.3410886065031 449.5380983368489 450.22662622530925 450.1674945774094 450.4586535175064 450.1956790224116 449.83842294882356 450.04719506268196 449.6510493909308 450.40034488518734 449.7176732004648 449.73754758870086 449.9895653050484 4
-340.14898613753945 -340.1649794599499 -339.7618071237356 -339.85217261160705 -339.55410827838097 -339.63818917460014 -340.1383180888201 -339.7085744153451 -340.09608154679245 -339.6931934260724 -339.69984818968 -339.71160179830633 -340.43477524778456 -340.175112795096 -339.65832853001973 5
-339.8968973557792 -340.12628135229045 -339.5683301889139 -340.3093399823557 -339.71799655392476 -340.28655946838416 -339.65959925770414 -339.99080331524334 -340.4479353890917 -340.41271812342785 -340.21040130865583 -339.7096615836304 -339.73504333129154 -339.88904526462693 -340.2326229851472 5
-339.6654842081473 -340.40547948517576 -340.03610079038407 -340.00900754018625 -340.2924000535658 -339.9013332287355 -339.61097670159495 -339.88556973583667 -339.507776165263 -339.8922232047948 -339.64821988010533 -340.1256643197209 -339.8694074634805 -340.01728173686683 -340.0857731290766 5
-340.3389610417393 -340.2879352253307 -340.4204641517381 -340.3287369017988 -339.7090693441992 -340.05089506563723 -340.1945063706258 -339.7563229896418 -340.4206749051885 -339.99978612381915 -340.1848939309154 -339.74559558494843 -340.09896011700096 -340.2570007442152 -339.76259334305183 5
-340.3394319058964 -339.6996105731181 -340.31231445238916 -340.2975649735358 -339.68390010394927 -340.49267083574165 -339.787661617541 -339.69173651753033 -340.0250026415396 -339.579018242025 -340.3986681781297 -339.9981031387179 -340.09468709416103 -339.8902237907238 -339.5924782643161 5
-340.2680765360419 -340.4809893350356 -339.8125733116867 -340.0956999240075 -339.69350309655755 -339.8404198952762 -340.23428178772775 -339.59922752345426 -339.6586836158494 -340.0478825136509 -339.86229192630486 -339.7897594485002 -339.72742228966314 -339.9413681140734 -340.259366982123 5
-339.6364058904295 -340.0026117579177 -339.89509114467694 -339.900680413256 -339.79964314494333 -339.7234703391246 -340.2572462874185 -339.96825881418204 -340.39178887959923 -340.1281329647987 -339.68330112507925 -339.8539029589841 -339.7512615704314 -339.86383946421773 -340.0988083268481 5
-339.7936433338631 -340.09988815470797 -340.23239937587175 -339.88270393371204 -340.35118436319067 -339.8828274612768 -340.34449576359003 -340.28391879701144 -340.46578261659704 -340.32297553353084 -340.19810108851004 -339.7749178469572 -339.59204542756385 -339.6398631820072 -339.81009009326795 5
-339.5350787563054 -339.9334181854356 -340.07894035452597 -339.8384064580745 -339.65582650297176 -340.4069924197063 -340.4470015371127 -340.13931710621137 -339.9735262875623 -339.58677810449666 -340.23593913531664 -340.3299308026179 -340.3826110384666 -340.19693363049504 -339.9248987866936 5
-339.7097707992389 -339.5639103742179 -340.09955026520515 -340.13014743133755 -340.06136684851583 -339.9455219340112 -339.9047765471066 -339.63192557156225 -340.17043895744746 -339.9609744223997 -339.8538718933116 -339.5955113513235 -340.3234047418309 -340.08559591690175 -340.41450054162163 5
-339.79499085004966 -340.0740668675658 -339.6434000015674 -339.97537941646374 -339.7805033683856 -339.91486226402327 -339.59007974597984 -340.48623810096564 -339.96398118068254 -339.95239293662166 -340.4075524321725 -340.43027451306847 -340.3547560545372 -340.123252687788 -340.4058934373116 5
-340.2155931140109 -339.58957410245335 -339.9908569828924 -340.13160947073374 -339.5187438917732 -339.68849782071095 -339.8217994997559 -340.2264519542054 -339.5831180752799 -339.50417468932807 -340.13594005951205 -340.19026180438107 -339.54854894464927 -339.52497639946466 -340.20585541183584 5
-340.15950077361884 -339.58762396928705 -340.39321933319104 -340.41786028699255 -339.7987168955818 -340.18013376952064 -340.07262972839374 -340.48467535280747 -339.70125451936894 -339.69890603641096 -339.79698040217977 -340.3276390963984 -339.961513872018 -339.5110596365487 -339.53369200713854 5
-340.42749360725344 -340.4913379347186 -340.08992575926277 -340.32435278940414 -339.50550647154336 -340.45653499443114 -340.25759544971794 -340.335507982164 -340.03826956650704 -340.31104192187337 -340.4855037949986 -339.7412323770987 -340.3228457951734 -340.44637586597185 -339.75326240602743 5
-339.95508372699544 -340.08413660072426 -339.8378198773258 -339.6303752949127 -340.1395678079568 -339.80809274054747 -340.48210522953 -339.72686086917935 -340.4917393180867 -339.8593392214799 -339.7622728613363 -339.6162146819957 -339.84609212118414 -340.0596563900026 -340.23869444813386 5
-340.11833225815104 -340.2350346360465 -340.3421124564693 -340.1005596377586 -340.111692110698 -340.3307410704604 -339.69847899196844 -339.97730010719886 -339.60943222267775 -340.42552740466266 -339.8442318124643 -339.59962212780545 -339.7037522327123 -340.27337964128395 -340.08464432586595 5
-340.0327479211738 -340.3115745601972 -339.763435765046 -339.8575783778356 -339.6748796539208 -339.86229479761226 -339.9993639066436 -340.42674533327175 -339.8485526555547 -339.7626389691492 -340.3457725023539 -339.7191046849256 -339.8627421651719 -339.9354828427929 -339.6672354923192 5
-340.20673890711845 -339.82832424184505 -340.42778801044955 -340.36822721958845 -339.9655809274134 -339.82499225358276 -339.5851043273446 -340.03667090452933 -340.2033630175569 -340.1500184752753 -340.4329439467344 -340.37641443414054 -339.56745271487523 -339.6123935485589 -339.5040772355294 5
-340.4062081663197 -340.09069780364257 -339.5590269142211 -340.42004688166884 -339.76332250522063 -339.59933941060757 -340.01983170990735 -339.9623813601516 -339.65997933580894 -340.2656908331468 -339.6659221666556 -340.4541919687484 -340.456605074518 -339.9163027368865 -340.0630164438725 5
-339.5835124945783 -340.3995788416634 -339.5983392937518 -339.58012372187585 -339.77714389314406 -339.50675833460457 -339.5255718558757 -339.9691307748038 -340.18213921476683 -339.74560316881417 -340.3394602401988 -339.60720623499736 -340.0583050358986 -340.1536432075203 -339.6443212952898 5
-339.9765473814688 -340.33149022334237 -340.45899232150276 -340.2663145450999 -340.4421508203386 -340.1633400843684 -339.751934476922 -339.98100607299716 -339.9729108091434 -340.45809818936124 -340.3319596144728 -340.09181172053394 -340.1902606838645 -339.77337241943707 -340.248050601232 5
-339.608364460069 -340.3057518225011 -340.4882078657281 -340.39393309000707 -339.80290092676546 -339.9151104657857 -340.3670074837179 -340.2390513248415 -339.8162511643928 -339.83782599922347 -340.21604292509016 -340.14433658935076 -340.32867135471463 -340.2012246294004 -340.38523080749616 5
-340.1910546932843 -340.1078489372812 -339.6241863285043 -340.4954993680434 -339.8115533629076 -340.4067085875864 -339.5263761638667 -339.80054934960185 -340.2831343065938 -339.82527919671816 -340.0393524119835 -340.1790936387898 -340.07951311330595 -340.2489064621033 -339.7523407115684 5
-340.4055052475053 -340.43592234344527 -339.8722656776002 -340.321174110451 -340.24372662836095 -339.5943184947243 -340.05558628036755 -340.3222019569671 -340.1207021071733 -339.53938697763294 -340.2691464925044 -339.5015572647063 -340.18526085549394 -340.32612745075505 -340.21904400924575 5
-339.6421735479581 -339.55934899239446 -340.4008483248718 -339.7772007479086 -339.950017174961 -340.2604945922239 -339.82841956234716 -339.7333689833281 -340.15151682763405 -340.37512160521607 -340.39098042326765 -340.46044553203274 -339.845357757448 -340.2712540338652 -339.9368955572328 5
-339.6679899253766 -339.66364487004097 -340.45879858275816 -339.7544736948577 -340.1181000072034 -339.8575922584626 -339.62136011690666 -340.06384719018206 -339.56331934043834 -340.1463365500588 -340.0122859221359 -339.59960452960803 -339.7491836311429 -339.81532220260016 -340.239174207287 5
-340.15828744248046 -339.827182164885 -339.9808465523891 -339.88233503573576 -339.9872894654552 -340.1757481854521 -339.67194772277134 -340.42354103029663 -339.96773669442325 -339.8693631455328 -340.39660158478347 -340.4813916252905 -339.84924826201853 -340.40239896826887 -339.99891302842053 5
-340.02722433296657 -340.01448980029704 -340.426607567668 -339.81634004399757 -339.7444709676693 -339.9588020846649 -339.8227009927655 -340.0130298822425 -339.8309677562579 -340.2532215620072 -340.01699650664915 -339.61447700104014 -340.41425312454504 -339.6527436625578 -339.5998276369947 5
-340.49106307842 -339.7481485017368 -339.86785182530184 -339.7275560648176 -340.19568283416277 -340.175709023758 -340.32277002529963 -340.06174467112044 -340.00108568000877 -339.82596764127015 -340.46678748373705 -339.6465890421073 -339.6616575675343 -340.46333023545037 -340.3415005342161 5
-339.8017121958195 -340.2329624022 -340.02426426463535 -339.93636404542383 -339.8145334158125 -340.2035266400647 -339.52832169706176 -339.8066463967159 -339.67951117815795 -340.20104841164846 -340.44484748713217 -340.0252655040883 -340.4096851959732 -340.0996029615168 -339.6879728782964 5
-339.84842965633453 -340.32570634670276 -340.3629192707176 -340.34192808477115 -340.1154328591322 -340.13515260015856 -339.5870841764643 -340.23215620841165 -340.01972134724724 -340.2428367041752 -340.49222955929986 -339.9537570155705 -339.7440842595326 -340.0225836623995 -340.4476357101084 5
-340.0729843160987 -340.4737234048804 -340.15027618437216 -339.9498111192288 -339.76982862716136 -339.68913749902237 -340.2878196162351 -339.6426374699263 -340.32164156026556 -339.97498494721884 -339.6393896787287 -339.82820580210915 -340.38469870418226 -340.372103240587 -339.88050524065886 5
-339.6290399386356 -339.52399672862606 -340.08021843909705 -340.49798214184733 -339.6769671704621 -340.19973456022 -339.979408263722 -339.533883275076 -339.52911528260665 -340.45679553107317 -339.6257544871321 -340.2522890554655 -340.05622426061916 -339.72533114958696 -339.90792281712936 5
-339.5241639851853 -339.7661009659789 -339.5728628602447 -339.9318725968502 -340.4331367393952 -339.5545615988609 -340.1514490247289 -340.1056101443331 -340.23538248568894 -340.3784688322272 -340.1450047903427 -340.1623942760996 -340.0079207248919 -340.3375251816231 -339.621664735567 5
-340.2935044134573 -340.0725923808804 -340.4641001125837 -339.7775262060515 -340.1826799731477 -340.07931854484076 -340.05175498307904 -340.23088248849507 -339.6199120039951 -339.6369191971474 -339.5635521911663 -340.3237865298609 -339.8155636411628 -339.97741190500307 -339.76594692457473 5
-339.5780954684602 -339.75602427626717 -340.15272231954816 -339.9110426346569 -339.75954981353794 -339.7040851344242 -339.97624066459457 -340.08418778159455 -340.4410774483953 -339.98614151650463 -339.6350886965494 -340.20766658447627 -340.48682671362616 -339.90421181677306 -339.7785291397412 5
-339.82980652656613 -339.96758365563676 -340.3200985671984 -339.7912727066868 -339.65440583313176 -339.7030653121549 -340.1244610848709 -339.7288056427978 -339.87440323964114 -340.1044910285298 -340.08119713688757 -339.92428968758617 -339.9199085306726 -339.5142243079979 -340.1298976787818 5
-339.92310300851955 -340.4214196872692 -339.5027301364169 -339.6647240278764 -339.642025322006 -340.15604396414403 -339.5434024836342 -339.8283483483214 -340.41667920723705 -339.83265415085447 -339.7480055584799 -339.74688191854034 -340.0112838930771 -339.8553582804779 -340.2217085131748 5
-339.9065989213988 -339.7827708001865 -340.34266162186316 -340.2043867542469 -339.9625456084926 -339.9385770612498 -340.15981387326156 -340.28916835869313 -340.3186221932056 -339.67409697891634 -339.63112249267033 -339.87532785581345 -340.1911760217181 -340.2442303524744 -339.6754024049885 5
-340.2007591917905 -340.2408776616578 -340.04489918091815 -339.66920538255016 -340.4479217320787 -340.44791285362476 -339.5988405781592 -339.6558112267913 -340.00423292726225 -339.96201004583645 -339.9162785154226 -340.406168054238 -340.36933982039267 -340.0498636780021 -339.8240866144967 5
-340.0811404403258 -340.41516066408343 -339.97228884178514 -339.9797472659427 -339.93306026780033 -340.4989103883958 -339.5238002235843 -340.2435034251634 -340.44855623641905 -339.77992712756776 -340.42343782972443 -339.54607879944325 -339.8333682872903 -340.35156517298617 -339.70725926525284 5
-340.0108649325004 -339.6490981004664 -340.30908806707686 -339.53438799690156 -339.7413081876085 -340.2384078996791 -339.99678374956693 -340.2320643896438 -339.943711707863 -339.8866333421938 -340.09561005065405 -340.47213301448875 -340.2752930784755 -339.880603253878 -339.6847654414528 5
-340.22454825151056 -339.9907803040257 -340.033750106001 -340.21231400582894 -339.9620937670018 -339.5701757926014 -340.49938547899836 -339.75964344553756 -339.9453040265683 -340.2365249746782 -340.04524362372376 -340.43965017643586 -339.721314945353 -339.8808875493962 -340.10212018391206 5
-340.02810218000934 -340.29302073684437 -339.7226327231832 -340.1537870879113 -339.8812024073141 -339.838204548233 -339.99863500777434 -340.3341584078618 -340.3139759164783 -340.4966581419164 -340.1768524648672 -339.5734119839414 -339.61806224991875 -340.4660448865599 -340.423294667865 5
-340.2805340395339 -340.0932481399625 -340.27453183842346 -340.4407634799287 -339.7291848402051 -340.08198680425915 -340.13522662339756 -339.5656586372223 -340.06442700050843 -339.8089463685281 -340.32141231510633 -340.34403031397386 -340.1480067607066 -340.1545366818498 -340.1503418022913 5
-339.57846920795953 -339.7596416306024 -340.1111005409652 -339.684553911986 -339.50623076423403 -339.7518093838823 -339.5995739768535 -340.13402052704686 -340.4675922768665 -339.76982754324854 -339.73210324677933 -339.6653601345434 -339.9021344938133 -339.50308441787547 -339.610586458479 5
-340.0107427833658 -340.3179857449458 -340.2339257440215 -339.57159009679106 -340.0925373458437 -340.2717830968313 -340.22657475302015 -340.0046958672542 -339.8519696840775 -339.9798025553595 -340.4789780573923 -340.30626580787396 -339.60682579613905 -340.01005069685107 -339.7570836277675 5
-339.57246931878274 -339.6098285423448 -339.75674333170736 -339.7467663623432 -339.723283033127 -339.65590390494975 -339.69081094601864 -339.50574093658486 -340.39899729541537 -340.3364677698515 -339.9986246405536 -340.38074586124105 -340.24067497315707 -340.0991316230483 -340.1596675025525 5
-339.57646719099563 -339.5427033899252 -339.6171627282283 -339.7193053694723 -340.1942511976132 -340.0757374504999 -340.2366609778582 -339.6907842272817 -339.6684581490896 -339.55698070737054 -339.97277341682184 -339.79279206437326 -339.52756182445785 -340.4626179667235 -340.20453828240454 5
-340.0968108471443 -340.48205575860425 -340.0147719036337 -340.3407462381317 -339.88959170128726 -340.35946190792987 -340.0552807363407 -339.98998859905714 -340.4116592990941 -340.4809553771309 -339.9112806880969 -340.2316491535446 -339.60687813316594 -339.8017436116042 -339.99005688956703 5
